digraph Tree {
node [shape=box] ;
0 [label="0.0 <= 0.0\nentropy = 2.455\nsamples = 121\nvalue = [11, 33, 12, 17, 31, 17]"] ;
1 [label="0.0 <= 0.005\nentropy = 2.391\nsamples = 92\nvalue = [11, 18, 6, 17, 31, 9]"] ;
0 -> 1 [labeldistance=2.5, labelangle=45, headlabel="True"] ;
2 [label="122.0 <= 0.014\nentropy = 2.343\nsamples = 52\nvalue = [2, 17, 4, 9, 11, 9]"] ;
1 -> 2 ;
3 [label="13.0 <= 0.009\nentropy = 1.408\nsamples = 24\nvalue = [0, 12, 1, 0, 10, 1]"] ;
2 -> 3 ;
4 [label="entropy = 1.061\nsamples = 8\nvalue = [0, 6, 1, 0, 0, 1]"] ;
3 -> 4 ;
5 [label="entropy = 0.954\nsamples = 16\nvalue = [0, 6, 0, 0, 10, 0]"] ;
3 -> 5 ;
6 [label="132.0 <= 0.014\nentropy = 2.275\nsamples = 28\nvalue = [2, 5, 3, 9, 1, 8]"] ;
2 -> 6 ;
7 [label="entropy = 1.264\nsamples = 14\nvalue = [0, 0, 1, 5, 0, 8]"] ;
6 -> 7 ;
8 [label="entropy = 2.121\nsamples = 14\nvalue = [2, 5, 2, 4, 1, 0]"] ;
6 -> 8 ;
9 [label="0.0 <= 0.0\nentropy = 1.798\nsamples = 40\nvalue = [9, 1, 2, 8, 20, 0]"] ;
1 -> 9 ;
10 [label="0.0 <= 0.001\nentropy = 1.258\nsamples = 30\nvalue = [3, 0, 0, 8, 19, 0]"] ;
9 -> 10 ;
11 [label="83.0 <= 0.012\nentropy = 1.035\nsamples = 25\nvalue = [3, 0, 0, 3, 19, 0]"] ;
10 -> 11 ;
12 [label="entropy = 0.629\nsamples = 19\nvalue = [3, 0, 0, 0, 16, 0]"] ;
11 -> 12 ;
13 [label="entropy = 1.0\nsamples = 6\nvalue = [0, 0, 0, 3, 3, 0]"] ;
11 -> 13 ;
14 [label="entropy = 0.0\nsamples = 5\nvalue = [0, 0, 0, 5, 0, 0]"] ;
10 -> 14 ;
15 [label="entropy = 1.571\nsamples = 10\nvalue = [6, 1, 2, 0, 1, 0]"] ;
9 -> 15 ;
16 [label="0.0 <= 0.003\nentropy = 1.475\nsamples = 29\nvalue = [0, 15, 6, 0, 0, 8]"] ;
0 -> 16 [labeldistance=2.5, labelangle=-45, headlabel="False"] ;
17 [label="0.0 <= 0.0\nentropy = 1.143\nsamples = 24\nvalue = [0, 15, 1, 0, 0, 8]"] ;
16 -> 17 ;
18 [label="entropy = 0.986\nsamples = 9\nvalue = [0, 1, 1, 0, 0, 7]"] ;
17 -> 18 ;
19 [label="entropy = 0.353\nsamples = 15\nvalue = [0, 14, 0, 0, 0, 1]"] ;
17 -> 19 ;
20 [label="entropy = 0.0\nsamples = 5\nvalue = [0, 0, 5, 0, 0, 0]"] ;
16 -> 20 ;
}